,Dim_1,Dim_2,Dim_3,Dim_4,Dim_5,Dim_6,Dim_7,Dim_8,Dim_9,Dim_10,Dim_11,Dim_12,Dim_13,Dim_14,Dim_15,Dim_16,Dim_17,Dim_18,Dim_19,Dim_20,Dim_21,Dim_22,Dim_23,Dim_24,Dim_25,Dim_26,Dim_27,Dim_28,Dim_29,Dim_30,Dim_31,Dim_32,Dim_33,Dim_34,Dim_35,Dim_36,Dim_37,Dim_38,Dim_39,Dim_40,Dim_41,Dim_42,Dim_43,Dim_44,Dim_45,Dim_46,Dim_47,Dim_48,Dim_49,Dim_50,Dim_51,Dim_52,Dim_53,Dim_54,Dim_55,Dim_56,Dim_57,Dim_58,Dim_59,Dim_60,Dim_61,Dim_62,Dim_63,Dim_64,Dim_65,Dim_66,Dim_67,Dim_68,Dim_69,Dim_70,Dim_71,Dim_72,Dim_73,Dim_74,Dim_75,Dim_76,Dim_77,Dim_78,Dim_79,Dim_80,Dim_81,Dim_82,Dim_83,Dim_84,Dim_85,Dim_86,Dim_87,Dim_88,Dim_89,Dim_90,Dim_91,Dim_92,Dim_93,Dim_94,Dim_95,Dim_96,Dim_97,Dim_98,Dim_99,Dim_100,Dim_101,Dim_102,Dim_103,Dim_104,Dim_105,Dim_106,Dim_107,Dim_108,Dim_109,Dim_110,Dim_111,Dim_112,Dim_113,Dim_114,Dim_115,Dim_116,Dim_117,Dim_118,Dim_119,Dim_120,Dim_121,Dim_122,Dim_123,Dim_124,Dim_125,Dim_126,Dim_127,Dim_128,Dim_129,Dim_130,Dim_131,Dim_132,Dim_133,Dim_134,Dim_135,Dim_136,Dim_137,Dim_138,Dim_139,Dim_140,Dim_141,Dim_142,Dim_143,Dim_144,Dim_145,Dim_146,Dim_147,Dim_148,Dim_149,Dim_150,Dim_151,Dim_152,Dim_153,Dim_154,Dim_155,Dim_156,Dim_157,Dim_158,Dim_159,Dim_160,Dim_161,Dim_162,Dim_163,Dim_164,Dim_165,Dim_166,Dim_167,Dim_168,Dim_169,Dim_170,Dim_171,Dim_172,Dim_173,Dim_174,Dim_175,Dim_176,Dim_177,Dim_178,Dim_179,Dim_180,Dim_181,Dim_182,Dim_183,Dim_184,Dim_185,Dim_186,Dim_187,Dim_188,Dim_189,Dim_190,Dim_191,Dim_192,Dim_193,Dim_194,Dim_195,Dim_196,Dim_197,Dim_198,Dim_199,Dim_200
Actividades,-0.014841128,-0.048756942,-0.092612274,-0.006463383,0.04934692,0.14539258,0.22450455,0.10349453,-0.26766017,0.109444045,0.06167235,0.07939824,-0.11571031,0.2519536,-0.16788028,-0.12932639,0.122197285,0.2951403,0.11735373,-0.44905025,0.035176136,-0.20955637,0.5472826,0.20846759,-0.008165203,0.11134517,-0.06047798,-0.0201423,-0.20544818,-0.049053665,0.31798083,0.23295367,0.13671088,-0.06362522,0.08059573,-0.070141986,-0.23595662,-0.13375285,-0.16942973,-0.27017984,0.13588348,-0.24919997,-0.12931007,0.06926221,0.16262655,-0.02309209,-0.11823981,-0.192248,-0.064665236,-0.22128315,0.038541805,-0.119903035,-0.037823178,-0.066928275,-0.15112276,-0.43370807,-0.32184252,-0.46956545,-0.111564666,-0.34253666,-0.0011166566,-0.31791258,0.30360365,0.025536794,-0.3137908,0.15960386,0.04394231,0.13370238,-0.36151597,0.13789344,-0.17405209,0.42817447,-0.12795414,0.26718917,0.21624245,0.03476782,0.076817684,0.23448272,-0.0009369766,-0.08349712,-0.029190868,-0.3221429,0.0048290556,0.111448914,-0.27270326,-0.31171283,0.42981765,-0.14191926,-0.37234038,-0.024688726,0.023756323,-0.09010068,0.08415667,-0.11654791,0.12575775,-0.08847396,0.41707438,-0.032758247,0.077587254,0.14003544,-0.040186036,-0.008661773,0.1509859,0.05968866,-0.31327426,-0.1448791,0.17355132,0.07925942,-0.34967303,-0.42125064,-0.094064,-0.064439595,-0.12377483,-0.3070216,-0.0020531388,-0.07886662,0.03529705,-0.22331728,-0.22195542,-0.3762366,-0.21469967,0.09461703,0.27752367,-0.1064188,-0.3362458,0.021031886,-0.13880663,0.011994423,-0.11616058,0.3875812,0.08386226,-0.15356743,-0.101105675,-0.34739208,-0.09106598,0.23772414,0.03643985,0.16958472,-0.055102162,0.00052173325,0.44420993,-0.22968583,-0.21942315,0.040187173,0.15825684,-0.21492349,-0.11273663,0.15865846,0.22835396,0.09922921,-0.066878766,-0.24961312,0.4142045,0.105376005,-0.39342496,0.2582219,0.04135577,-0.041694146,-0.15104146,-0.022318976,0.37494358,0.008667295,0.20478661,-0.01075053,0.092689894,0.2519247,-0.14067784,0.26063713,-0.22931124,-0.3828126,0.12268143,0.1930011,0.29382026,0.10032521,-0.08995866,0.23294574,-0.08415388,0.0027919798,0.124600835,-0.13491635,0.0050452594,-0.121600695,-0.084415525,-0.146682,0.09255196,-0.31740314,-0.058887582,0.4251501,0.25088948,0.04832927,0.26389816,0.1625646,-0.41269034,0.1278331,0.30013913,0.01546533,-0.15575194,-0.34008262,0.13838837,-0.23530339
Contenido,-0.033010427,0.16824853,0.19635066,0.023341488,0.0032088293,-0.04469949,0.08106019,0.11807748,-0.26391944,-0.0601256,0.20589976,-0.2422321,0.38960433,-0.1266693,0.28988254,0.022249099,0.016525602,0.011506435,-0.2426325,-0.28493577,-0.06360289,0.13138115,0.22910702,-0.28688496,0.084329545,0.034166627,0.03710834,-0.10222205,0.03228182,-0.038835663,-0.010317642,-0.20664546,0.22298738,0.22260968,-0.040826123,0.11219108,0.0905499,0.093919404,-0.0045914995,-0.16973746,-0.21886481,0.1519476,-0.16590855,0.14538437,-0.115524516,-0.10473206,-0.057783376,0.09378849,-0.22507146,0.044748526,-0.13031466,-0.011516644,-0.24297017,-0.14301972,0.10161527,-0.10622531,-0.0032975485,-0.058671925,0.14674152,0.030091248,-0.2564206,-0.15578203,0.25284824,-0.023562768,-0.39108908,0.19245106,-0.13780242,0.057354443,-0.1801589,0.055137325,0.020685952,0.25532043,0.10843132,0.20035557,-0.13193332,0.15717435,0.16416517,-0.29645956,-0.28936952,0.02807169,0.07780023,-0.00287717,0.177748,0.20740198,-0.070780165,0.084047884,-0.11482418,-0.17717029,0.17819814,0.20404054,0.008719204,0.12503478,0.16719487,0.03463454,0.23234977,0.25482726,0.17464298,-0.0029813566,0.2686313,-0.2662238,-0.09566702,0.18703707,-0.09923547,0.2517551,0.12865923,-0.32095873,-0.09407215,0.30840078,-0.04858272,-0.21554446,0.22301789,0.002017199,-0.056714144,-0.01715124,0.19194384,0.094639674,0.17355625,-0.24958189,-0.06446759,-0.15245715,0.008380686,-0.13289726,0.088079914,-0.13093969,-0.053096283,-0.14902277,-0.21630397,0.35468104,0.053716905,-0.060389865,0.1729473,-0.110976756,0.021067979,0.14042614,-0.04919787,0.20172472,0.19764028,0.03202908,-0.15393858,0.16810629,-0.016669603,0.10735073,0.012069895,0.026197772,0.0060471045,0.116920635,0.1878076,0.033334464,-0.009306584,0.24302508,0.20161627,0.0036480275,-0.07694112,0.12131136,-0.09785245,-0.09905479,0.045428764,0.22510476,0.13969208,-0.030040897,-0.113652304,0.23881729,0.21208414,-0.10819481,-0.10470163,-0.017868554,0.124492556,0.02136827,-0.056832414,-0.04241542,-0.002852913,0.11679918,-0.036774445,0.072975405,0.06628447,-0.1134832,-0.16407517,0.14319748,0.041442357,-0.071272515,-0.11892173,0.23125246,-0.041983202,0.108952366,0.12607944,-0.09866254,-0.11723916,-0.14821889,0.24064417,0.04629018,-0.17367163,0.05758899,-0.0389371,0.079962164,0.33318812,-0.21275471,-0.14142804,-0.01494566,-0.048133284,0.038535465
Evaluacion,0.013224937,0.13017526,0.07046266,0.0877069,-0.022381958,-0.04643524,0.068706445,0.21768846,-0.25002733,-0.03203928,0.151387,-0.18544006,0.20880294,0.017287144,0.14123583,-0.066344716,0.1376061,0.124241166,-0.31807932,-0.3045784,-0.00054971874,0.07771622,0.108476676,-0.2385487,0.20510511,-0.09236997,0.12287925,0.10416489,-0.1438309,-0.020396562,-0.08165346,-0.20831937,0.12281475,-0.057504352,-0.17648381,-0.015846817,0.18431543,0.017775927,0.017730856,-0.11109674,-0.28458658,0.16187277,-0.18185207,0.09735575,0.0066114427,0.03194698,-0.12354494,0.13918291,-0.075686395,0.15865125,-0.14889911,0.041498892,-0.24493319,-0.15971403,0.03909098,-0.17688087,0.07448228,-0.14198795,-0.07099716,0.12875019,-0.08836277,-0.10470683,0.14066269,-0.08083424,-0.24951988,0.24817306,0.01770996,0.14818117,-0.17194547,0.10996406,0.14156011,0.25266555,0.094832696,-0.035744198,-0.04314704,0.17130704,0.32538864,-0.09180137,-0.18323517,-0.093513675,0.027656456,-0.042452034,0.046256,0.15718901,-0.075522594,0.009226172,-0.033854764,-0.20933089,0.15840946,0.16470729,-0.009603754,0.13974018,0.240981,-0.007906253,0.32132244,0.23107772,0.004511907,-0.08320206,0.20851217,-0.09942704,-0.2697178,0.26846418,0.03650236,0.17286974,0.22701186,-0.27362826,-0.006603059,0.3084965,0.027661564,-0.23112272,0.207704,-0.071452826,-0.051297244,0.04151459,0.22596665,0.09283715,0.25769058,-0.0386062,-0.17496844,0.04582859,0.057925608,-0.14607343,0.25189355,-0.07409864,-0.06694294,0.005772087,-0.07180057,0.27936625,0.033332527,0.03648617,0.19099537,-0.17392729,-0.0864129,-0.013898273,0.08048113,0.24234034,0.31872758,-0.011818901,-0.07976829,0.34491998,0.13816582,0.010826406,-0.04284077,-0.0066075465,0.056888048,0.22515357,0.19480841,-0.07601541,-0.03699467,0.06589704,0.23931018,-0.13540584,-0.15162791,-0.018500978,-0.12722012,0.08167736,0.18945044,0.31232086,0.14860138,0.05628019,-0.17560795,0.19162741,0.09177196,-0.13879356,0.076282285,-0.027579993,0.15517232,0.055075116,0.06289441,-0.0114195,-0.006594056,-0.13581543,0.049965113,0.24462673,0.006991217,-0.18683083,-0.23692532,0.11599027,-0.0012672704,-0.06351508,-0.2761859,0.24249198,0.100042015,-0.00015679678,0.03074346,-0.07237398,0.05775615,-0.17903782,0.11808513,-0.15186934,-0.16917928,-0.02419238,0.0023815404,-0.14103697,0.19506018,-0.038339846,0.11712478,-0.102239385,-0.18487795,0.028257277
Foros,0.055241823,-0.081716895,-0.03498603,-0.0063377693,0.036124505,0.12560824,0.23567905,0.08761008,-0.24111974,0.053945888,0.11351919,0.047938403,-0.062139828,0.26243025,-0.15038823,-0.11170358,0.16715047,0.28280294,0.104266085,-0.44700873,0.01935858,-0.16383572,0.5388673,0.16359438,0.005928381,0.134041,-0.08917245,-0.08033083,-0.13873546,-0.04810915,0.30286828,0.25895083,0.128204,0.031223375,0.007112051,-0.024075715,-0.2679623,-0.19476147,-0.18659824,-0.3173354,0.16019523,-0.2235266,-0.031895723,-0.01577762,0.11686407,0.037012424,-0.14929517,-0.24890509,-0.13213272,-0.19433637,0.026269324,-0.19910568,-0.13171925,-0.031646103,-0.17328967,-0.41952044,-0.28371146,-0.43513107,-0.10660459,-0.33980623,-0.052566294,-0.30539787,0.33235875,0.03581256,-0.318658,0.18317026,-0.03993704,0.047480475,-0.37304074,0.060654033,-0.14783052,0.42038077,-0.11413991,0.2777936,0.21662846,-0.040190898,0.097255915,0.18102925,-0.07637888,0.015973002,0.040330876,-0.29208693,-0.037438724,0.15251268,-0.23856178,-0.28219715,0.4152494,-0.17662269,-0.34329554,0.0070606316,-0.005938873,-0.06387805,0.035725802,-0.100673,0.098294266,-0.033804987,0.43664998,-0.070946254,0.079185866,0.13728832,0.052571956,-0.03709067,0.1700702,0.14777148,-0.28709102,-0.13883778,0.14772376,0.025210856,-0.33836243,-0.40266377,-0.06989405,-0.03185099,-0.06803729,-0.2719735,0.023519447,-0.009076505,0.095666826,-0.20090036,-0.22282863,-0.4225698,-0.15347908,0.13200697,0.22762537,-0.17963125,-0.3123776,0.070882194,-0.19179289,0.08845458,-0.14864835,0.38052672,0.0258734,-0.06878633,-0.060307026,-0.31878975,-0.10523992,0.16272767,-0.048887506,0.14570186,-0.12255782,0.00951689,0.40107298,-0.18653038,-0.16101642,0.07371737,0.19200973,-0.24091218,-0.14391896,0.10957543,0.27795437,0.12153441,-0.124961294,-0.1855459,0.39499423,0.028411226,-0.3521204,0.2656001,-0.067483425,0.011231122,-0.11018177,0.051699378,0.36934602,0.012524632,0.1484245,0.09324941,0.07167124,0.25727168,-0.17818049,0.287798,-0.19235352,-0.35702917,0.12184233,0.16710006,0.24080288,0.04478693,-0.08806052,0.20612144,0.015069267,-0.028023817,0.13877313,-0.1932714,-0.04846041,-0.09116669,-0.15485287,-0.058517747,0.114719294,-0.2684457,-0.004665402,0.42457262,0.29886317,0.025907049,0.22475724,0.10491129,-0.39285547,0.1908464,0.23360859,-0.039373927,-0.16239882,-0.3022789,0.14058162,-0.2007619
General,0.0006500834,-0.0049021514,0.0022938813,-0.0002691114,0.0031660479,0.00089173735,-0.0015648991,0.0038799865,0.0007773328,2.76047e-05,-0.002306477,-0.004226762,-0.003883416,0.004335255,-0.00446248,0.004517358,-0.004640509,-0.00013837815,-0.0009535235,-0.004465573,0.00431503,0.0033889068,0.0015097195,0.0024167264,5.6095123e-05,0.0047123404,0.0035106437,-0.004926863,-0.0022166104,-0.0006450558,0.0015238613,-0.0021619762,0.0007245833,-0.0039229495,0.0013890368,0.002351346,0.0024686563,-0.0015878511,-0.0042135203,-0.004610309,-0.00036144973,-0.0036637324,-0.0034074814,0.0030600028,0.0035861516,0.0010587096,-0.0039497004,-0.002849494,0.0040259226,0.001960422,-0.002620235,-0.0036959522,0.00038577736,0.0017318773,0.0010395967,0.001550402,-0.00281025,-0.004944743,-0.0035104186,0.000115154384,0.0023093396,0.002263154,0.0009399062,0.0025853373,-5.2680374e-05,0.0020570832,-0.0045616203,0.0038504559,0.003073737,0.0025620782,0.0036033345,0.0042198985,0.00036934792,-0.00085193035,0.00025931417,-0.0046583903,0.004203107,-0.003189966,0.0042139213,-0.0021221775,0.00032342135,-0.0045820842,-0.004779284,-0.003918405,-0.0038655282,0.000187791,-0.0036132312,-0.0024751066,-0.0026358534,-0.002144649,0.0035061557,0.002414695,0.0043413853,0.0035467958,-0.002847203,0.003620398,-0.0046474515,-0.0012937844,-0.0038785832,0.0020963007,0.00090011535,0.0035230457,0.0014723492,-0.0034904247,0.0038563388,-0.0029944635,0.0044988543,0.0014796024,-0.0020076465,-0.0023444968,-0.002208361,-0.0030732285,0.0046893703,-0.0013247979,0.0038862198,-0.0048401677,0.0010543955,-0.0006168073,0.0037721144,-0.0045273006,0.0037187815,-0.002552898,-0.0030068874,-0.0028245782,-0.0016895848,-0.0017055481,-0.0015978324,-0.0037461007,0.00035438835,-0.00028803587,-0.00084199966,0.0018785661,-0.0038100947,-0.0016107112,0.0025776708,0.0042719315,-0.00490497,0.0035976684,0.0026547438,-0.0019398486,0.0042880788,-0.004610996,0.0036243403,0.002681917,0.0006467974,-0.002599877,-0.0020893263,-0.00167839,0.00080414355,0.00079335214,0.0036941217,0.0049887965,0.0044336687,-0.0020032246,0.004822695,-0.00031477035,0.0024327165,0.0012745082,-0.00031490505,0.0018337237,-0.002659707,-0.0028783388,-0.003802322,0.00095321715,0.0032629347,0.00044106424,0.00062847434,0.0015857982,0.004067333,-0.0038500302,0.0011303759,-0.003737055,0.0018549061,0.004755275,0.0037601292,0.0032130152,0.004007388,0.0032755726,0.003428338,0.004341044,-0.0024740202,0.004606477,0.0025296009,-0.0010651249,0.0042437245,0.0025406713,0.0048244772,0.0014162004,0.004933769,0.00059850217,0.0045645917,0.0017934835,0.0032824026,-0.0018056654,0.0033964545,0.0036217868,-0.0010667306,-0.00092977704,0.0018058729,-0.0035182135
Plataforma,-0.0019220486,0.0010666108,0.06622108,-0.03445587,-0.009954308,0.011951008,0.059770223,0.042318232,-0.09862413,-0.017636463,0.070987284,-0.036573194,0.06710892,0.007970792,0.02548523,-0.007473487,0.011387362,0.04173218,0.023665586,-0.16252895,-0.019236306,-0.021264654,0.20653656,0.008525216,-0.027290424,0.07413721,-0.044081986,-0.059952643,0.0039572855,-0.004795362,0.06658629,0.03897082,0.112526014,0.091892526,0.05129058,0.029320788,-0.06599691,-0.029188775,-0.059762087,-0.105809115,0.007620486,-0.031789634,-0.067766525,0.047976736,-0.031868916,-0.075564146,-0.024500098,-0.047941256,-0.097445875,-0.05648207,-0.016402645,-0.053336993,-0.06145976,-0.023130393,0.008603812,-0.10373212,-0.10683991,-0.10623251,0.06288603,-0.07535068,-0.10093276,-0.11474656,0.13470091,0.014369225,-0.17840391,0.058387544,-0.056425683,-0.00046033607,-0.11182438,0.017780257,-0.04325861,0.16744795,-0.022577966,0.1463204,0.025642542,0.04286788,0.022420285,-0.05850922,-0.07978272,0.022805355,0.022118904,-0.03555534,0.069746345,0.10242507,-0.10572096,-0.034365684,0.07108149,-0.049180273,-0.05706364,0.048380647,0.029783245,-0.009906541,0.023337832,-0.009028224,0.031827312,0.022341851,0.17981471,-0.00814195,0.079479635,-0.040160574,0.032567937,0.028831637,-0.005670112,0.07778094,-0.07475816,-0.10470047,-8.33175e-05,0.060198694,-0.12311812,-0.1372759,0.01259927,0.010284408,-0.052927773,-0.0923901,0.042682987,-0.0006137471,0.020121537,-0.13119365,-0.047608912,-0.18288384,-0.05866332,-0.010177679,0.05571256,-0.08088339,-0.08573221,-0.050790105,-0.12450951,0.07300718,-0.010611168,0.07986147,0.04384987,-0.04254563,0.014385029,-0.042792037,-0.044716064,0.061368804,-0.0072643682,0.07116381,-0.054545846,-0.033048414,0.04814157,-0.03221292,-0.03336367,0.04176253,0.015744938,-0.0726915,0.01674601,0.06480229,0.06474643,0.114097826,0.009125138,-0.04351818,0.11183404,0.080779254,-0.11223622,0.018579535,-0.010929745,0.015908258,-0.031639427,-0.0159567,0.090601645,0.05206584,0.09930964,-0.0021916535,-0.037385896,0.08450916,0.0072357706,0.07282047,-0.09332497,-0.08999255,0.016824152,0.124499656,0.044382915,0.010132591,0.012061216,0.07433665,-0.03735148,0.043011535,0.049217485,-0.06260761,0.012139644,0.016152168,-0.06333539,-0.0002969893,0.08220876,-0.08817686,-0.068230085,0.07602862,0.13717516,0.061803173,0.06381025,0.05775527,-0.1262637,0.095666036,0.14321269,-0.08003138,-0.11831906,-0.07471633,0.02903374,-0.038691927
Retos,0.015904408,0.14715843,-0.0004237483,0.039737422,0.067982875,0.025641937,0.020230673,0.17507485,-0.25413075,0.021489324,0.08724952,-0.18558303,0.26314142,-0.011249394,0.19391392,-0.08143536,0.14666782,0.16260666,-0.3118778,-0.26645336,-0.06367876,0.02947335,0.044279687,-0.27927035,0.20519046,-0.1009112,0.16949965,0.09736983,-0.13369313,0.012185601,-0.015185934,-0.23471661,0.026804285,-0.04230753,-0.20410576,-0.017416669,0.14297266,0.070824705,0.027760364,-0.080971345,-0.2486382,0.13651729,-0.128336,0.14641577,0.036729675,0.06643845,-0.07727526,0.07699283,-0.10804798,0.102410585,-0.0936986,0.01272576,-0.24116385,-0.19749755,-0.052759238,-0.1760404,0.050698694,-0.11996667,-0.09140318,0.05832812,-0.047416396,-0.11632304,0.18927053,-0.0318674,-0.254335,0.27052474,0.061191283,0.14572196,-0.1798762,0.123187706,0.12292317,0.21237707,0.12212532,0.013307014,-0.080148414,0.19400178,0.32150614,-0.054547194,-0.16770667,-0.051001836,0.032588225,-0.10156235,-0.025989758,0.10007546,-0.027121644,-0.029100392,-0.084048145,-0.20940788,0.20644265,0.117438704,-0.041354142,0.16195767,0.25941318,-0.025848147,0.3017848,0.21870634,0.063722506,-0.038328167,0.22623786,-0.15452063,-0.2631338,0.27873683,0.012302607,0.12639533,0.20429115,-0.24622817,0.0035619952,0.30052862,0.075298235,-0.21880491,0.24408276,-0.013142551,0.00095931836,-0.017426144,0.23076892,0.03978627,0.25113255,-0.09259326,-0.18476222,0.09349404,0.05135421,-0.123052016,0.24018006,0.027743932,-0.14448833,0.0047201877,-0.0039242515,0.26523092,0.048610184,-0.0038304348,0.13325904,-0.16577092,-0.11819999,0.01046657,0.07382502,0.2661816,0.32550994,-0.07878312,-0.16741782,0.34215707,0.11910238,0.07017476,0.028800478,-0.02182149,0.10865102,0.20083608,0.16503589,-0.08224217,-0.060992736,0.03180639,0.20908576,-0.08215149,-0.19005059,-0.08280921,-0.14257471,0.0381411,0.15040123,0.30931982,0.17959097,-0.0038095915,-0.12922806,0.18594204,0.14175574,-0.1184481,0.08179403,-0.08922855,0.09847155,0.116912,0.017889893,-0.08701779,0.03887794,-0.11318527,0.019493055,0.24678785,-0.0024709122,-0.17376605,-0.21549247,0.14964244,-0.056498963,-0.028830621,-0.24795456,0.23952076,0.09503481,0.043521658,0.0059643947,-0.0703094,0.097483404,-0.10250506,0.084704414,-0.16686215,-0.21201023,-0.021333214,-0.008199117,-0.117913224,0.2410755,-0.041356865,0.1216896,-0.11488363,-0.13584276,-0.021668982
Tutoria,0.02420986,0.102110885,-0.05077134,0.09860417,0.031588867,0.001997086,0.06432349,0.1840084,-0.17582674,0.020525087,0.0693583,-0.10884478,0.059715845,0.08225559,0.032489385,-0.09556812,0.17011884,0.16758947,-0.26701358,-0.2281272,0.031691078,0.026081651,0.0194184,-0.15866175,0.21233366,-0.12838233,0.14589211,0.16212152,-0.19521807,-0.022473387,-0.05375058,-0.15688635,0.0029467396,-0.18974131,-0.21751009,-0.08867465,0.16341248,0.007427401,0.032074165,-0.05393549,-0.20544253,0.10140063,-0.10308194,0.052898146,0.103811264,0.1289083,-0.11896571,0.09830654,0.018992933,0.14103372,-0.086361974,0.051752876,-0.16094258,-0.15325344,-0.046816725,-0.19212559,0.09701992,-0.14861126,-0.18211806,0.091572925,0.035398897,-0.07221717,0.0807933,-0.067012146,-0.109487034,0.22003071,0.10702037,0.16946508,-0.15005541,0.11827171,0.12193484,0.15894298,0.08294094,-0.12289039,-0.00043513958,0.101645865,0.309944,0.07176763,-0.072583064,-0.12577286,-0.019625343,-0.106762454,-0.057683043,0.046239097,-0.02070863,-0.05969872,0.037331197,-0.17842905,0.08643221,0.06897263,-0.035784584,0.112943485,0.22649357,-0.036967583,0.29420888,0.14644974,-0.0612325,-0.06321563,0.11567421,0.019852301,-0.30452076,0.21437296,0.09123772,0.08602253,0.18119687,-0.169363,0.043925643,0.22228922,0.057546593,-0.17346637,0.13785736,-0.09488851,-0.022067156,0.044379596,0.15365668,0.055248525,0.22373126,0.058683798,-0.17616212,0.14244696,0.057030734,-0.071523234,0.25049275,0.0070906417,-0.08107287,0.08855489,0.040323243,0.17294176,0.0022440732,0.060377404,0.1325023,-0.15276532,-0.12588894,-0.071731254,0.0954182,0.22732405,0.30645785,-0.05369956,-0.048972826,0.36373925,0.22272968,-0.027779076,-0.062651895,-0.032089308,0.100610554,0.21761435,0.098229155,-0.11178495,-0.027520873,-0.06621192,0.16653472,-0.1474764,-0.13452132,-0.08975098,-0.11521835,0.14721437,0.19732077,0.25044727,0.13663578,0.07600357,-0.12956221,0.109799996,0.027158698,-0.11081091,0.1632689,-0.057013005,0.07379858,0.07506206,0.09950268,-0.034023747,0.012449001,-0.21818304,0.084861614,0.23874624,-0.028856358,-0.16577281,-0.18694371,0.05525316,-0.02432664,-0.036143776,-0.27402025,0.15361558,0.13757256,-0.030622613,-0.050309543,-0.052245535,0.12994088,-0.100474,0.028950483,-0.20091133,-0.1467921,-0.03565815,0.011293653,-0.20655215,0.089548156,0.07222643,0.2161833,-0.1105097,-0.14746119,0.00102507
Videos,0.0073032943,0.13614097,0.21291186,-0.04875039,-0.028827187,-0.06006916,0.021465616,0.14497127,-0.25140792,-0.09318116,0.201298,-0.24472974,0.4040255,-0.14805637,0.29192704,0.026547872,0.031311084,0.008816379,-0.21007088,-0.28993627,-0.09683736,0.09128378,0.20815979,-0.28351745,0.05417378,0.04408859,0.043455187,-0.080335565,0.053427737,0.014149701,-0.04017731,-0.19961928,0.22592658,0.23114075,-0.02052953,0.11332491,0.09306106,0.073573366,-0.02866414,-0.13678469,-0.2248965,0.1501937,-0.18938455,0.18528268,-0.1472575,-0.1403747,-0.044349007,0.071684174,-0.25083363,0.05471961,-0.1364426,-0.023514519,-0.26479772,-0.1322423,0.097396165,-0.08947658,-0.035603285,-0.052115154,0.16811806,0.063345395,-0.2696407,-0.15395121,0.24337389,-0.006079743,-0.4029022,0.20623547,-0.1377964,0.016366543,-0.14365818,0.04156401,0.066552594,0.27856982,0.08835865,0.21316412,-0.11908595,0.22179623,0.19781518,-0.3186203,-0.28119564,0.060642157,0.09387728,0.050617635,0.17608172,0.23523805,-0.1168997,0.09582727,-0.15264884,-0.14665017,0.22064207,0.20685034,0.044359565,0.12912382,0.16296837,0.048229333,0.18385586,0.23585357,0.21115254,-0.028529307,0.28044504,-0.2947416,-0.055040944,0.24597947,-0.09479371,0.22897871,0.14010261,-0.3233378,-0.09618529,0.31062165,-0.043902755,-0.2147947,0.24270752,0.040650792,-0.058137197,-0.04344761,0.2350249,0.051094558,0.1578114,-0.25385746,-0.09234042,-0.15492305,-0.0013748242,-0.178184,0.110335834,-0.1258617,-0.10412957,-0.16481534,-0.21404298,0.33856508,0.08297978,-0.053942885,0.14300656,-0.13973317,0.014066439,0.12185559,-0.015483003,0.18529683,0.1869892,0.020259565,-0.19163467,0.12536487,-0.08073278,0.100108735,0.05074112,0.059970938,-0.0032900625,0.09333699,0.23298442,0.021566434,-0.03712655,0.24991935,0.20891324,-0.021148602,-0.07869431,0.10724612,-0.12761961,-0.096929245,0.05748942,0.25041443,0.12014175,-0.049231876,-0.09864335,0.23098701,0.20812692,-0.10650793,-0.112486824,0.005675356,0.17295876,0.07730718,-0.09298154,-0.030473549,-0.015902907,0.1360991,-0.038354713,0.12080656,0.07767619,-0.07075219,-0.19421269,0.19798642,0.0053010117,-0.077899486,-0.12035953,0.27166632,-0.04813598,0.09148892,0.14851896,-0.0770643,-0.10465704,-0.16301069,0.23768772,0.042664796,-0.13558458,0.029335046,-0.070264235,0.076383665,0.33775982,-0.22300217,-0.13884677,-0.043720216,-0.096124955,0.023716502
