,Dim_1,Dim_2,Dim_3,Dim_4,Dim_5,Dim_6,Dim_7,Dim_8,Dim_9,Dim_10,Dim_11,Dim_12,Dim_13,Dim_14,Dim_15,Dim_16,Dim_17,Dim_18,Dim_19,Dim_20,Dim_21,Dim_22,Dim_23,Dim_24,Dim_25,Dim_26,Dim_27,Dim_28,Dim_29,Dim_30,Dim_31,Dim_32,Dim_33,Dim_34,Dim_35,Dim_36,Dim_37,Dim_38,Dim_39,Dim_40,Dim_41,Dim_42,Dim_43,Dim_44,Dim_45,Dim_46,Dim_47,Dim_48,Dim_49,Dim_50,Dim_51,Dim_52,Dim_53,Dim_54,Dim_55,Dim_56,Dim_57,Dim_58,Dim_59,Dim_60,Dim_61,Dim_62,Dim_63,Dim_64,Dim_65,Dim_66,Dim_67,Dim_68,Dim_69,Dim_70,Dim_71,Dim_72,Dim_73,Dim_74,Dim_75,Dim_76,Dim_77,Dim_78,Dim_79,Dim_80,Dim_81,Dim_82,Dim_83,Dim_84,Dim_85,Dim_86,Dim_87,Dim_88,Dim_89,Dim_90,Dim_91,Dim_92,Dim_93,Dim_94,Dim_95,Dim_96,Dim_97,Dim_98,Dim_99,Dim_100,Dim_101,Dim_102,Dim_103,Dim_104,Dim_105,Dim_106,Dim_107,Dim_108,Dim_109,Dim_110,Dim_111,Dim_112,Dim_113,Dim_114,Dim_115,Dim_116,Dim_117,Dim_118,Dim_119,Dim_120,Dim_121,Dim_122,Dim_123,Dim_124,Dim_125,Dim_126,Dim_127,Dim_128
Actividades,-0.09944923,-0.17899527,0.11550258,-0.015028103,0.11437339,-0.42274195,0.07339977,0.047915235,-0.18168034,0.2681714,0.5736441,0.19627249,-0.033472784,-0.05775213,-0.023482885,0.040976122,-0.0771045,0.12692016,-0.26515266,0.2792878,0.47778368,0.29304007,-0.002484495,-0.040787373,-0.12076383,-0.041683223,-0.48933977,0.16802332,-0.14027025,-0.103880145,-0.2817584,-0.3156146,0.09972848,0.22277135,0.010719024,0.044698633,0.38272408,-0.31008837,0.5560709,0.42274776,0.14960812,0.07715366,0.3169704,-0.15478437,-0.46980342,0.3837473,0.23438956,-0.048408255,0.09822208,-0.428498,0.32436743,0.04826951,0.069041595,-0.09930206,0.3555354,0.14780053,0.2172463,-0.37867945,0.012665413,0.057072334,0.4822456,-0.45159063,-0.1384173,0.20545955,0.23594627,-0.28979427,0.43588483,0.46225396,-0.049426943,-0.028816272,0.102630846,-0.07712938,-0.20245779,-0.18889421,-0.040580913,-0.3351385,-0.07075418,-0.2204657,0.16806445,0.33211,0.17500679,-0.20449758,-0.08653109,0.5509671,0.06019112,0.4350254,0.10350641,0.054757126,0.19021046,0.25651357,0.1362008,0.05719087,-0.23666215,0.119731866,0.33235338,-0.318446,-0.51672405,-0.5585568,-0.09393383,-0.04641925,-0.19625758,0.115647554,0.44310206,-0.13189209,-0.28903332,0.033670366,0.27412215,-0.20487885,0.26540396,-0.3213483,-0.0036004488,0.05158272,0.057545047,-0.23642534,0.24559021,-0.0014030439,-0.24212945,0.42722705,-0.093190126,-0.472139,-0.47509858,0.20162058,-0.075052984,0.16383696,-0.39332172,-0.023789322,0.0057495646,0.028960986
Contenido,-0.06800519,-0.17504789,0.33781824,-0.194646,-0.17839915,-0.16423397,-0.023258327,-0.0051215817,-0.13380782,-0.026525483,0.4306899,0.09739867,-0.20490025,-0.05974737,-0.34018534,-0.33313623,-0.02089671,0.1261531,0.005156439,-0.4187735,0.07334418,-0.107744366,0.33621052,0.028314805,0.10200695,0.23015927,-0.029895836,0.10146222,0.087581195,-0.15067902,-0.25049976,0.14828129,-0.11682688,0.017038092,-0.0029111388,-0.06327578,0.25101745,0.06957566,0.19364381,-0.24141636,0.18446846,0.25749597,-0.45359486,-0.15164241,0.28607526,-0.15129188,-0.053408246,-0.18257673,-0.028756978,0.058288764,0.07172474,-0.17057887,-0.21280657,0.1619239,0.2392496,-0.16160308,0.088639915,-0.3862854,-0.062583104,0.13420297,0.297199,-0.075754724,0.11263801,0.106214665,-0.18760213,-0.0027011072,-0.006289839,0.15370162,0.116447896,-0.19459917,0.022034034,-0.018865217,0.0113439225,-0.25824335,-0.15425085,0.17486146,0.28666225,0.16694827,-0.03214669,-0.03645115,-0.33525878,0.18326451,0.20464614,0.0038536869,-0.0795465,-0.032679375,0.22428381,-0.21113786,0.090859234,0.32416874,-0.20298368,-0.043321487,-0.12906438,-0.17911987,0.18867016,-0.117318735,-0.17662288,-0.2382999,0.12697911,0.28183672,-0.15315899,0.2453129,0.014164077,-0.0018651199,0.2854995,-0.06973389,-0.2559337,-0.16484475,0.08909349,-0.08656974,0.022237582,-0.16239299,0.00019082493,0.049423557,-0.06374685,0.28391263,0.045724913,0.21201505,0.10001095,0.16375613,0.05461241,-0.05496147,-0.04396443,-0.006249095,-0.10387657,-0.17058864,-0.44558898,-0.019631272
Evaluacion,-0.0685996,0.05602386,0.35228524,0.016192442,-0.21494213,-0.2640354,0.17936122,0.22159848,0.029382767,0.015181654,0.41119838,0.13977955,-0.03550346,-0.012965472,-0.37241203,-0.11593641,0.014499918,0.1890878,0.0056583406,-0.2877758,0.18953183,0.06585428,0.36007452,-0.16030748,0.12491672,0.0774847,-0.01830087,0.26834852,0.0712453,-0.017497988,-0.19018438,0.15761954,-0.046378788,-0.05533619,-0.12707968,-0.09350092,0.29301405,0.038867522,0.20899418,-0.3135657,-0.009722085,0.30327588,-0.35364208,-0.30855307,0.25076658,0.040004354,-0.15851408,-0.0007560508,-0.06591504,0.15899847,-0.07941852,-0.04084695,-0.29282442,0.16221592,0.33817258,-0.27462634,0.12485112,-0.24435258,-0.071226485,-0.02006778,0.087160714,-0.10135194,-0.0074036964,-0.1624531,-0.039061822,-0.038590882,-0.08983875,0.19356386,0.06332961,-0.020839257,-0.045731872,0.20388497,-0.009423833,-0.15250906,-0.088726364,0.055930145,0.34016,0.18013883,-0.121265665,-0.10367189,-0.28089842,0.20332515,0.059935287,0.048195526,0.049454592,-0.014922518,0.33740735,-0.28610268,0.079648234,0.37784052,-0.16306904,-0.14315434,-0.1176067,-0.16924085,0.18035094,-0.07642106,-0.07692008,-0.25765717,0.18863986,0.32160956,-0.33791098,0.2370396,0.12847415,-0.028711569,0.13259478,-0.13179682,-0.24809547,0.022356942,-0.07760551,-0.091422066,-0.005678425,-0.20710222,-0.22050555,0.1492344,0.04367564,0.32577914,0.2547307,0.2668136,-0.003820866,-0.008072612,-0.002998819,-0.09796572,0.13578461,-0.23531601,-0.005827003,-0.13620497,-0.33431262,-0.006420603
Foros,-0.100110404,-0.16058771,0.19964868,0.07491121,0.056793194,-0.45890424,-0.0383381,0.027673623,-0.1456449,0.17650627,0.5635187,0.15352923,0.078166,-0.15124851,-0.033866014,-0.031779822,-0.15981802,0.120328,-0.30121976,0.19290255,0.41025588,0.31691137,-0.00025345417,-0.0026053772,-0.14622942,0.055347092,-0.45633134,0.19796072,-0.21952137,-0.036841713,-0.27853134,-0.30716082,0.042091355,0.24180286,0.080708295,-0.03737814,0.28800857,-0.3662321,0.52827585,0.45800537,0.070151925,0.06535776,0.26837888,-0.036490303,-0.49469256,0.31404006,0.2652261,0.003330304,0.09898443,-0.46093762,0.37415692,-0.046758078,0.0154903,-0.03689256,0.24833292,0.13876817,0.18076707,-0.3725788,-0.12476862,0.16839911,0.4408772,-0.43316832,-0.071932524,0.1530146,0.25466722,-0.33220854,0.3851474,0.4107371,0.10764826,-0.07925223,0.053760245,-0.15355098,-0.2950535,-0.26455763,-0.042259715,-0.3563539,0.005926503,-0.25728253,0.16798191,0.27025723,0.09624836,-0.17602177,0.0664697,0.5563362,-0.0071423394,0.46150047,-0.00624478,0.12725103,0.10257742,0.23122719,0.15315865,0.1438114,-0.20760131,0.22817968,0.35227886,-0.37657467,-0.49105018,-0.52854425,-0.024488399,-0.08767825,-0.24521112,-0.0353484,0.46349,-0.07782947,-0.3758822,-0.041674457,0.26885733,-0.21092357,0.27320325,-0.29672194,0.04747446,-0.06888129,0.12454874,-0.10121149,0.19916406,0.0277956,-0.30737117,0.34783295,-0.08816275,-0.5001118,-0.50480664,0.13459636,0.014178747,0.17044446,-0.39398557,-0.11584014,-0.05534818,-0.023285896
General,-0.005156018,0.0033909585,-0.00037069153,-0.002810591,0.0053769313,0.003025244,-0.0030470323,0.0006030379,0.0071433615,0.006058325,0.0049702125,0.00364633,0.0018628826,-0.0014387704,-0.0049775727,-0.00023578946,-0.0012229597,-0.00044709817,-0.004892868,0.0058078496,-0.005149604,-0.0056556854,-0.0021540206,-0.0011839066,-0.005965404,0.0005455008,-0.0041610245,-0.0009965189,-0.005753993,0.0015316941,0.0025571864,-1.8076971e-05,-0.0042565297,-0.0013485048,0.0055350913,0.0029189521,-0.0069383197,-0.0026668366,0.0018391423,0.001670328,-0.007393756,0.0035712235,-0.0067632794,-0.005771147,0.0027211811,-0.0027116863,0.002784743,0.0069485083,-0.0027924394,0.007281582,0.0013367487,0.007693574,0.004457065,-0.007148034,-0.0025997898,0.0051016994,0.0043771714,0.0068011843,0.0054110177,0.006280381,-0.0076742256,0.0033584572,-0.0039297473,0.0027440516,0.0047317874,0.0034313528,0.005869031,0.0011700904,-0.0009882357,0.004506563,-0.004405912,3.0149706e-05,0.0073879585,-0.004282227,0.0029799053,-0.0063382974,0.0076330416,0.0063789953,0.0010007592,0.0039824834,0.0011001006,-0.005043095,-0.0011156648,0.0050384104,-0.0036072703,-0.0031195823,0.003847191,0.0021196082,-0.0014437307,-0.002247612,0.004695884,-0.004466202,-0.002528674,-0.005068613,-0.0033083064,-0.006703902,-0.0034920229,-0.0066493982,0.0010967012,-0.006732966,-0.0077473875,-0.00640752,-0.0052911453,0.005219207,0.0029566847,0.00027825497,-0.0023109233,-0.0058033755,0.00041673332,0.0003905408,0.00015282724,0.0006660903,0.00061432086,-5.325023e-05,-0.006255511,-0.004586151,-0.0065491498,-0.0010250332,0.0014223726,0.0057946313,-0.0015339274,-0.0018166341,0.0074118394,6.226916e-05,-0.0018785326,0.006722537,0.0020992216,-0.0041749785
Plataforma,-0.013901455,-0.15763411,0.1294431,-0.078587085,0.011780233,-0.0730592,-0.0845699,-0.07844366,-0.086676024,0.005703947,0.21081127,-0.016433138,-0.10088817,-0.03783874,-0.11046323,-0.1363007,-0.04738493,-0.0030574023,-0.0780251,-0.08061017,0.09166638,0.002729745,0.07636595,0.051177364,-0.0471768,0.11598567,-0.12472647,0.009402845,-0.07073999,-0.08682381,-0.10879374,-0.040465586,-0.05160363,0.10918415,0.06944974,-0.021462703,0.12459042,-0.04515144,0.16271977,0.07743566,0.08607884,0.03369297,-0.06427933,-0.007655073,-0.036096808,-0.039120212,0.12525007,-0.0759372,-0.008864555,-0.11354196,0.098417,-0.07856518,-0.030987872,0.034009483,0.091500185,0.004398786,0.08478708,-0.20325443,-0.05434211,0.10639938,0.2246446,-0.13041703,0.07014295,0.12183736,-0.011468743,-0.045106094,0.1036001,0.105888404,0.036996327,-0.08868813,0.045636646,-0.09570742,-0.050076053,-0.12642021,-0.050605856,-0.018905785,0.06087967,-0.025114372,0.027605982,0.04568535,-0.06254525,0.00816349,0.085119955,0.08283959,-0.08007515,0.10352455,0.011899835,0.0150569035,0.017504739,0.13140373,-0.009518788,0.041175224,-0.09211504,-0.02159093,0.13524312,-0.122993626,-0.20747936,-0.16488466,-0.042625327,0.053680476,-0.024351029,0.028952716,0.04326773,0.005096158,0.04366019,-0.012022087,-0.036495015,-0.12678379,0.13254446,-0.08938028,-0.027331762,-0.053474095,0.10867724,-0.0644659,-0.0020770233,0.086925365,-0.12751125,0.12205322,0.01989992,-0.039667927,-0.063054584,0.028997434,-0.0678618,0.12294,-0.102753974,-0.040421605,-0.13189322,0.04669229
Retos,-0.051035065,0.13385595,0.43183696,-0.08003531,-0.19549194,-0.2699346,0.12734891,0.19380061,0.0725865,0.053844877,0.41559285,0.22802833,0.05197772,-0.11438241,-0.3962817,-0.1471908,-0.04826959,0.22960055,0.04575976,-0.26276842,0.14810182,0.02171805,0.40393478,-0.23750761,0.10020474,0.13945235,-0.045753077,0.28616336,0.17824094,0.048116356,-0.19397864,0.26815563,-0.14983048,-0.01809787,-0.105506666,-0.15324959,0.27061725,0.13311045,0.20278917,-0.2723656,0.11876735,0.30830312,-0.34599656,-0.2960737,0.26246712,0.10325119,-0.13160603,-0.117852926,-0.13968225,0.09601162,0.010904839,-0.06977545,-0.33572593,0.19014014,0.29703006,-0.24693865,0.109346434,-0.2099226,-0.05329544,-0.11921669,0.11015797,-0.13489129,0.046319168,-0.11048848,-0.040002845,-0.11426793,-0.064811066,0.15362673,0.10864929,-0.1014711,-0.17564812,0.17146426,0.0046190605,-0.11814508,-0.1493344,0.06063173,0.3582985,0.19769986,-0.14064366,-0.09546443,-0.31781137,0.2414296,0.04081002,-0.021876868,0.13496196,0.0072757485,0.31643513,-0.24517563,0.10705903,0.40233636,-0.27987123,-0.13926104,-0.14528361,-0.16997053,0.043964148,-0.14170907,0.05378392,-0.22873689,0.27798283,0.2794824,-0.33192286,0.23049699,0.20125999,-0.09000951,0.047650956,-0.1618517,-0.2757302,-0.043589327,-0.053726126,-0.034812305,0.0053551975,-0.16189957,-0.21239284,0.1124726,0.017642092,0.33842617,0.23060472,0.23757723,0.03667072,0.013203323,-0.025497222,-0.11359447,0.12783971,-0.2117776,-0.10668153,-0.20766097,-0.3932706,-0.09083258
Tutoria,-0.06270335,0.2255779,0.29306036,0.050736595,-0.18764646,-0.29596806,0.1987279,0.2894552,0.11079376,0.061082717,0.2967923,0.23734215,0.13432242,-0.07622064,-0.25213364,0.008329394,-0.014295676,0.23151204,0.03759127,-0.09682425,0.16725893,0.09456605,0.28506497,-0.25783026,0.10772099,0.011633868,-0.023070697,0.29229453,0.15916297,0.09413548,-0.13936774,0.18297853,-0.05032675,-0.08216151,-0.14178045,-0.09190759,0.2072944,0.06130157,0.14698362,-0.22869119,-0.008647336,0.27303165,-0.18041815,-0.2749886,0.16745171,0.19745162,-0.19220601,0.0046072807,-0.074145705,0.114010744,-0.038442057,0.020127952,-0.24976306,0.13961312,0.26318458,-0.19991697,0.06053677,-0.0713723,-0.025733525,-0.16479138,-0.036108695,-0.09307982,-0.05523281,-0.2135688,0.039292403,-0.095807336,-0.06822026,0.14788689,0.06628937,0.006296139,-0.15504134,0.20706311,-0.022444146,-0.056522705,-0.072020866,-0.0073583284,0.25282562,0.1235874,-0.10483588,-0.07359756,-0.19138503,0.14665863,-0.017902156,0.0574527,0.1829067,-0.00398693,0.2847879,-0.2151742,0.10191358,0.27151605,-0.1747339,-0.1405741,-0.07655319,-0.07141922,0.028505545,-0.06337286,0.09879559,-0.16836739,0.27491164,0.18704498,-0.3632448,0.18588218,0.23439954,-0.081779934,-0.052835304,-0.13014981,-0.13348483,0.04261074,-0.14535376,-0.046964742,0.03041128,-0.11919228,-0.28641662,0.14106251,0.093920805,0.21590899,0.2935871,0.17976992,-0.015480971,-0.077177435,-0.07548617,-0.09503623,0.1931413,-0.29858795,-0.057801045,-0.16041794,-0.19803338,-0.11009
Videos,-0.009806447,-0.21612866,0.4125114,-0.2553158,-0.12155285,-0.08203952,-0.09294948,-0.09088824,-0.12343022,-0.04131329,0.42676544,0.01605,-0.25418144,-0.05485085,-0.42666504,-0.38480955,-0.047354184,0.055840854,-0.02527426,-0.44835222,0.07849402,-0.13676505,0.38548666,0.01485511,0.042720802,0.293098,-0.08147733,0.07100871,0.034361124,-0.1662462,-0.23378853,0.19738616,-0.1807529,0.09374636,0.054210823,-0.11843673,0.2856461,0.13206859,0.20001614,-0.19028015,0.23040053,0.20422833,-0.47989064,-0.1476397,0.28366157,-0.19272663,0.058943152,-0.23083872,-0.11553762,0.03371663,0.050057136,-0.18146732,-0.24984305,0.17448457,0.23856097,-0.17495844,0.15987526,-0.4117689,-0.0830152,0.13397181,0.35987878,-0.13604857,0.20100471,0.15876769,-0.19340944,-0.00454803,0.018101936,0.122307345,0.08074742,-0.22852148,-0.00021129492,-0.03327674,0.040225945,-0.24291272,-0.16652533,0.17458268,0.3251813,0.1738032,-0.089775965,-0.08968914,-0.34588343,0.2353123,0.19182207,-0.0837897,-0.12266576,0.018673042,0.19690384,-0.16137345,0.042805564,0.3982074,-0.2476892,-0.0363634,-0.16637507,-0.24590117,0.16091916,-0.15397711,-0.21126834,-0.24514928,0.059636805,0.31004858,-0.09209081,0.21350722,-0.011043685,0.010030486,0.3254457,-0.10270897,-0.340132,-0.19589119,0.15368083,-0.07491025,-0.065963395,-0.17269908,0.07594662,-0.025503067,-0.10173973,0.3616523,-0.025214208,0.2401185,0.10503126,0.18446232,0.102864444,-0.06601387,-0.08795439,0.07942383,-0.09312266,-0.13159434,-0.5008292,0.06531863
