,Dim_1,Dim_2,Dim_3,Dim_4,Dim_5,Dim_6,Dim_7,Dim_8,Dim_9,Dim_10,Dim_11,Dim_12,Dim_13,Dim_14,Dim_15,Dim_16,Dim_17,Dim_18,Dim_19,Dim_20,Dim_21,Dim_22,Dim_23,Dim_24,Dim_25,Dim_26,Dim_27,Dim_28,Dim_29,Dim_30,Dim_31,Dim_32,Dim_33,Dim_34,Dim_35,Dim_36,Dim_37,Dim_38,Dim_39,Dim_40,Dim_41,Dim_42,Dim_43,Dim_44,Dim_45,Dim_46,Dim_47,Dim_48,Dim_49,Dim_50,Dim_51,Dim_52,Dim_53,Dim_54,Dim_55,Dim_56,Dim_57,Dim_58,Dim_59,Dim_60,Dim_61,Dim_62,Dim_63,Dim_64,Dim_65,Dim_66,Dim_67,Dim_68,Dim_69,Dim_70,Dim_71,Dim_72,Dim_73,Dim_74,Dim_75,Dim_76,Dim_77,Dim_78,Dim_79,Dim_80,Dim_81,Dim_82,Dim_83,Dim_84,Dim_85,Dim_86,Dim_87,Dim_88,Dim_89,Dim_90,Dim_91,Dim_92,Dim_93,Dim_94,Dim_95,Dim_96,Dim_97,Dim_98,Dim_99,Dim_100,Dim_101,Dim_102,Dim_103,Dim_104,Dim_105,Dim_106,Dim_107,Dim_108,Dim_109,Dim_110,Dim_111,Dim_112,Dim_113,Dim_114,Dim_115,Dim_116,Dim_117,Dim_118,Dim_119,Dim_120,Dim_121,Dim_122,Dim_123,Dim_124,Dim_125,Dim_126,Dim_127,Dim_128,Dim_129,Dim_130,Dim_131,Dim_132,Dim_133,Dim_134,Dim_135,Dim_136,Dim_137,Dim_138,Dim_139,Dim_140,Dim_141,Dim_142,Dim_143,Dim_144,Dim_145,Dim_146,Dim_147,Dim_148,Dim_149,Dim_150,Dim_151,Dim_152,Dim_153,Dim_154,Dim_155,Dim_156,Dim_157,Dim_158,Dim_159,Dim_160,Dim_161,Dim_162,Dim_163,Dim_164,Dim_165,Dim_166,Dim_167,Dim_168,Dim_169,Dim_170,Dim_171,Dim_172,Dim_173,Dim_174,Dim_175,Dim_176,Dim_177,Dim_178,Dim_179,Dim_180,Dim_181,Dim_182,Dim_183,Dim_184,Dim_185,Dim_186,Dim_187,Dim_188,Dim_189,Dim_190,Dim_191,Dim_192,Dim_193,Dim_194,Dim_195,Dim_196,Dim_197,Dim_198,Dim_199,Dim_200,Dim_201,Dim_202,Dim_203,Dim_204,Dim_205,Dim_206,Dim_207,Dim_208,Dim_209,Dim_210,Dim_211,Dim_212,Dim_213,Dim_214,Dim_215,Dim_216,Dim_217,Dim_218,Dim_219,Dim_220,Dim_221,Dim_222,Dim_223,Dim_224,Dim_225,Dim_226,Dim_227,Dim_228,Dim_229,Dim_230,Dim_231,Dim_232,Dim_233,Dim_234,Dim_235,Dim_236,Dim_237,Dim_238,Dim_239,Dim_240,Dim_241,Dim_242,Dim_243,Dim_244,Dim_245,Dim_246,Dim_247,Dim_248,Dim_249,Dim_250,Dim_251,Dim_252,Dim_253,Dim_254,Dim_255,Dim_256,Dim_257,Dim_258,Dim_259,Dim_260,Dim_261,Dim_262,Dim_263,Dim_264,Dim_265,Dim_266,Dim_267,Dim_268,Dim_269,Dim_270,Dim_271,Dim_272,Dim_273,Dim_274,Dim_275,Dim_276,Dim_277,Dim_278,Dim_279,Dim_280,Dim_281,Dim_282,Dim_283,Dim_284,Dim_285,Dim_286,Dim_287,Dim_288,Dim_289,Dim_290,Dim_291,Dim_292,Dim_293,Dim_294,Dim_295,Dim_296,Dim_297,Dim_298,Dim_299,Dim_300
Actividades,0.034726556,-0.20343296,-0.080562264,0.2321158,-0.08797381,-0.09255264,0.00585175,0.16981025,-0.09710326,-0.09118358,0.1570465,-0.059264537,-0.05975972,0.22359033,-0.22852181,0.07477529,0.28652006,-0.070472546,0.15928376,-0.3200277,0.028004,0.050237007,0.08569846,0.01940954,0.20734067,0.010550825,-0.2561395,0.17902882,-0.036140613,-0.11553317,0.259102,0.22682105,0.13294552,0.21333992,-0.31960696,0.08229319,-0.09766055,-0.18787472,-0.10895228,-0.09573807,0.20704317,0.052406516,0.05945163,-0.24131393,-0.0063356543,0.197561,-0.21981555,-0.11057312,-0.056929372,0.12730573,0.0695189,-0.012762202,-0.23229155,0.22449031,-0.094208956,-0.40404576,-0.11354663,-0.2369789,-0.022629812,-0.14754958,-0.11899355,0.070630595,0.30365634,0.009851529,-0.1757649,0.02197972,-0.14163683,-0.22828004,-0.16897878,-0.13866171,0.05826232,0.31898475,-0.11487913,-0.17236115,0.19847623,-0.2893605,0.18114276,0.024506219,0.06257807,0.148653,0.09563127,-0.17566836,-0.12923467,0.28340244,-0.090000875,-0.22364366,0.08074094,-0.13513277,-0.034320194,0.170218,-0.1926327,0.15453406,0.035707787,0.079379275,0.1898948,-0.10233937,-0.020149995,0.07213867,0.17781463,0.26688036,0.23532999,-0.076411724,0.33697718,0.016514402,-0.2329875,-0.1849734,-0.036689397,0.032265045,-0.22960119,-0.3537286,0.101961926,-0.12996358,0.21327049,-0.11432573,0.14372432,0.24380104,0.14465219,-0.009272858,-0.037572324,-0.39107096,0.01244914,0.1142586,0.21073242,-0.18954289,-0.2100358,0.32139695,-0.15465085,0.042254005,0.02308143,0.28127936,-0.167029,0.10672398,0.17377745,-0.05309764,0.12732051,0.100296244,-0.035130434,-0.030171083,-0.3059726,0.08611833,0.18469983,-0.12821744,-0.20922714,0.23613085,0.021458061,-0.2806138,-0.20241883,-0.10392208,0.061917927,0.006338446,-0.22715934,-0.10896575,-0.013574889,-0.05204126,-0.033893634,0.26007858,-0.27461934,-0.0005798425,0.13695279,0.2534629,-0.049517617,-0.08699215,-0.0080134375,0.27836394,-0.08731808,0.24526562,-0.34449133,0.06073055,0.085826345,-0.13462563,0.10314265,0.16394584,-0.002049959,0.14913231,-0.041086975,0.27348855,0.23995316,-0.2815253,0.047756445,-0.03543502,-0.07334517,0.14207226,0.037961356,0.17386028,-0.18547627,0.0716666,0.040970556,0.25982,0.3145061,-0.0010190267,0.26177773,-0.019033806,-0.19249181,0.24464686,-0.18934001,-0.04423858,0.19407016,-0.229921,0.09041194,-0.14989261,0.036118574,0.3847275,0.13713855,0.19211331,0.18922813,-0.09415007,0.16165878,0.08093565,-0.20977126,-0.049797885,0.16353248,-0.12594718,0.16105813,-0.16092245,0.3643707,-0.08589375,-0.103255354,-0.19859119,-0.18450218,-0.29162475,-0.011355827,0.02513246,0.20397897,-0.39333612,-0.18927895,-0.08211862,-0.17406319,-0.054826856,0.14295818,-0.16509423,0.07967571,-0.2990932,0.037842624,0.1238259,-0.038150042,0.049099457,0.035995465,0.21815449,-0.1054664,-0.24361722,-0.14162411,0.048524402,0.10496345,0.13308468,-0.023250815,-0.087933086,0.1607591,0.06770733,-0.14384921,0.12439598,0.102851085,-0.0632883,0.17814957,-0.03422473,-0.10399027,-0.06585937,0.13640559,0.18586703,0.08548658,-0.18990523,-0.14439763,-0.12181615,0.22830857,-0.008125141,-0.2862837,0.21084264,0.094484866,0.26096892,-0.33617628,0.124443285,-0.2690984,0.20130129,0.20311216,0.24060349,-0.065444425,0.01591665,-0.14737508,0.04008768,-0.22910461,-0.093781464,-0.11213492,0.045023724,0.0050205328,-0.05240815,0.29616746,0.03590236,-0.106017664,-0.22897968,0.13361156,0.2205073,0.052086275,-0.034441415,-0.095169716,0.02353016,0.37520733,0.09274775,-0.06295132,0.11643076,0.022059849,-0.116758995
Contenido,-0.13396148,0.0065670474,0.21799639,0.019627498,-0.06668082,-0.031606633,-0.042070042,0.24440514,0.063079506,-0.009993325,-0.07062264,-0.204968,-0.19198234,0.06224322,-0.17670606,-0.2094721,-0.052175317,0.112855256,0.040255018,-0.04979784,-0.04402597,0.12151603,-0.00961465,0.113779604,-0.039570156,0.0711447,-0.13266073,0.26995727,-0.0775392,0.00037600246,-0.24592617,-0.08692398,0.115034625,0.031146342,-0.1338458,-0.053669088,0.08247845,-0.25171295,-0.082252786,0.09785043,-0.01936554,0.09643241,-0.18220444,0.046717145,-0.0815795,-0.06669993,-0.0028210676,-0.11342318,-0.039047807,0.025719678,-0.019722633,-0.09190888,0.08785916,-0.0014990646,0.055922154,-0.012220854,0.095953375,-0.021368796,0.21582934,0.26086107,-0.123313,-0.11306521,0.005254374,-0.06673292,0.035353,-0.05500057,0.111827984,0.16637172,-0.11310769,0.113854155,0.04860447,0.13093999,0.118743666,-0.19681886,0.10435216,0.12160094,0.10587816,-0.13685535,-0.15025645,-0.13658589,-0.2509578,0.10578433,0.028846573,0.24401008,-0.2072802,0.08399367,0.088682406,-0.1762892,0.00015753522,0.16795768,0.02008501,-0.011439727,0.05189198,-0.22221653,0.0619183,0.13063847,0.13122474,0.13546479,0.17331871,0.2238644,-0.21779889,0.06482446,-0.044738017,0.0033635178,0.08515385,-0.088727295,-0.14416349,0.034450684,-0.06486763,-0.043766506,-0.15134703,-0.0715245,-0.2947104,0.097544946,0.050232884,0.2542011,0.039085545,0.13175045,-0.027358212,-0.17908016,0.21093634,0.06544506,0.20686546,0.101705536,0.18825437,0.24989259,-0.09845829,-0.17058776,-0.051912714,0.11556928,0.24079518,-0.0066682724,0.11051222,-0.22840208,0.17115888,0.014189049,-0.0075106574,0.14882368,0.0076116333,-0.069175385,0.015844448,-0.21322073,-0.097064644,0.12944904,0.020841068,-0.013737731,-0.07833954,-0.08024087,0.1938092,0.0038000338,0.02910243,-0.14672588,-0.09252233,0.10604389,0.00056204025,0.12714688,0.0769689,-0.10399734,-0.13861994,0.1539032,0.05565698,0.1730732,0.058272216,0.1352897,0.14273886,0.06547606,0.1156182,0.11347831,0.19977702,0.12200055,0.0044802823,-0.03511795,-0.07845018,0.07139021,0.13088599,-0.03669809,-0.014094982,0.020071356,0.20787044,-0.14446095,-0.05057496,-0.16987301,0.06076479,-0.08674938,-0.039706312,0.037395086,0.05232574,-0.047090203,-0.07870051,-0.19700034,0.20392103,0.14336948,0.16079754,-0.019575993,-0.15916003,0.024772318,0.056702994,-0.0739151,-0.26809543,0.25160205,0.120563336,0.2144602,-0.009660595,-0.24655432,0.24382958,-0.062911674,0.14670922,0.12341008,0.029471368,-0.14846535,0.019574268,-0.22661203,0.06500174,-0.15641235,0.05257221,-0.06056362,0.20798957,0.013854812,0.09123505,-0.19092892,0.14020647,-0.020283815,-0.101362586,-0.16480793,-0.08993595,-0.0064443545,0.06412717,-0.086473845,0.06745356,-0.010737258,-0.097387955,-0.043891978,-0.16793522,-0.18154146,-0.08865716,-0.033166133,0.026490716,0.21580449,0.07365332,0.07288612,0.20061229,-0.115778804,0.1642335,0.15623961,0.12251663,0.073286474,-0.118017554,-0.08921836,0.0047918228,0.065730825,0.14871626,0.16388255,0.119145155,-0.2116289,-0.022326652,-0.14595875,0.19334258,0.054382045,-0.07206227,0.070233196,-0.119532086,-0.18404895,0.018797668,0.12756671,0.09861757,0.17182378,0.050770108,0.013564962,0.058896452,-0.10251652,-0.00029355436,-0.15966173,0.16578071,0.09962772,0.047695756,0.041269857,0.31377396,0.12917821,0.09767866,0.15356775,-0.14240083,0.05384741,0.040673632,-0.15678518,0.16208188,0.033294182,0.17444794,0.08324792,0.12537718,-0.09159379,0.18983719,0.12369452,0.21613932,0.003229453,0.15814745,0.04490207,0.031988326,0.08298862,0.023848841,0.003299169
Evaluacion,-0.15368243,0.07732309,0.1764004,0.080629244,-0.10846033,-0.13610433,0.07603133,0.29078382,0.029826825,-0.12054521,0.11081773,-0.08631566,-0.12383508,0.039970435,-0.07604467,-0.1396557,0.063627504,0.024287393,-0.14726032,-0.07626252,0.064297386,0.106030434,0.12749602,0.14808361,-0.027058939,0.010207918,-0.026358634,0.23455596,-0.11250722,-0.03599328,-0.21157691,-0.0857894,0.11529286,-0.08841968,-0.05118345,0.0012583219,0.21916057,-0.23673227,-0.090148106,0.08358243,-0.11485236,0.15986468,-0.15022469,-0.04614933,0.010215937,-0.046701495,-0.038186423,0.05395811,0.025519202,0.1120198,-0.060518727,0.025512826,-0.06269051,-0.07771529,0.10189534,-0.04026887,0.122100264,0.0077863093,0.1315086,0.23196885,-0.076990046,-0.01076873,0.010379139,-0.13155285,0.03449673,-0.05021326,0.04974243,0.20612292,-0.10296446,0.024206705,0.13867776,0.115927264,0.04423072,-0.13596703,0.07043413,0.046975352,0.09591402,-0.035359316,-0.1511359,-0.16499647,-0.17875239,0.15201469,0.117682904,0.22964351,-0.17313224,0.053112183,0.17294224,-0.09096155,-0.042201824,0.09311814,-0.019999344,-0.022790601,0.07343598,-0.12831084,0.22703636,0.108454436,0.0065995157,-0.06969862,0.088294394,0.12701656,-0.27645022,0.10923,-0.039612696,0.030892255,0.15906823,-0.07435754,-0.06710468,0.106172584,-0.08836399,-0.02264154,-0.13528542,-0.07954528,-0.2874286,0.14296113,0.026707377,0.17744179,0.083018616,0.20632152,-0.008662269,-0.1257505,0.13351324,-0.09905619,0.25594988,0.016038662,0.16808067,0.15492678,-0.11160233,-0.0076096943,-0.09877476,0.13710634,0.30676687,-0.038314294,0.055552736,-0.24365339,0.20041914,-0.0070542963,0.057399742,0.18037829,0.13067202,0.07097517,0.09278183,-0.23660946,-0.21168756,0.12001654,-0.0015862865,0.029653683,0.068975076,-0.054382443,0.13354498,-0.039797954,0.15048453,-0.14429297,0.00085488305,0.06872531,-0.012961857,0.082018755,0.0851446,-0.049823336,-0.09387006,0.107472934,-0.03926332,0.081193365,0.0056430562,0.003837797,0.09543013,0.076690026,0.2614421,0.034056876,0.14658622,0.20698228,-0.10015976,-0.08858546,-0.02037537,0.14054553,0.094176784,-0.04210274,-0.13482162,0.070459746,0.21455301,-0.17142072,-0.17404997,-0.09150448,0.13091291,-0.1327582,-0.059745044,-0.06047436,0.09437528,-0.123862974,-0.097056784,-0.18802485,0.13195059,0.0251586,0.16694966,-0.15312509,-0.09031422,-0.03066739,0.14231513,-0.012607072,-0.25185987,0.21710138,0.008990508,0.14567398,-0.107110314,-0.22138451,0.13687918,0.043558266,0.057198722,0.12919033,-0.12026757,-0.057563674,-0.08407227,-0.15451287,0.06476126,-0.14236102,0.05977931,-0.15917143,0.13831864,0.07575033,-0.058888387,-0.16816063,-0.07362542,-0.08484875,-0.037382517,-0.11441951,-0.024194067,-0.09588411,0.15762204,-0.03472374,-0.02916365,0.11065093,0.04373875,-0.16482066,-0.20624478,-0.19335407,-0.15205424,0.026999826,0.05817435,0.17656726,0.08440596,0.022789367,0.119601585,-0.10054904,0.013975694,0.1432578,0.10577034,0.073269054,-0.043413207,-0.031752154,-0.03907542,0.016502677,0.11294574,-0.011462862,0.03576979,-0.12684506,-0.2061312,-0.12123057,0.15137577,-0.08567943,-0.18318032,-0.06296348,0.06408363,-0.14008297,0.16548762,0.019910043,0.0020573274,0.2204239,0.12991467,0.073614106,-0.10189802,-0.057859674,0.075609826,0.017404143,0.18628643,0.09901783,-0.015034388,0.17460898,0.21766606,0.14888117,0.030548073,0.11440315,-0.0006362686,-0.10705034,-0.045504805,-0.15521908,0.07895899,-0.12572421,-0.009851258,0.050070327,0.1445709,-0.03569426,0.12928317,0.19057907,0.14770813,-0.06682581,0.22392575,0.0935832,0.07124621,-0.022514636,0.11959502,-0.11128892
Foros,-0.026007557,-0.20955038,-0.11419483,0.23224981,-0.06962498,-0.11917827,-0.039542586,0.18412764,-0.080995,-0.09969158,0.11934838,-0.085313685,-0.07267658,0.17525052,-0.20355158,0.10798848,0.24450514,-0.12725694,0.18832952,-0.2916737,0.01941045,0.07959193,0.024078825,0.009388723,0.2119875,-0.013400016,-0.26748064,0.23161352,-0.0457196,-0.11791208,0.2489441,0.20067732,0.13048236,0.24859402,-0.32428333,0.10877659,-0.06290433,-0.12255313,-0.08199926,-0.021159861,0.20735733,0.09506874,0.012765851,-0.212277,-0.014629557,0.16996086,-0.1870546,-0.05777648,-0.021712802,0.15321492,0.07992185,0.034997344,-0.17843972,0.22976732,-0.049359605,-0.3716982,-0.11923211,-0.19571331,0.046530955,-0.110347606,-0.12674883,0.10454235,0.32026216,-0.005196047,-0.17126782,-0.029740665,-0.13577658,-0.24069484,-0.12643762,-0.14077021,0.0660897,0.2920186,-0.11062385,-0.21136759,0.16683483,-0.26772222,0.15730177,-0.024700712,0.08897193,0.115545124,0.07931229,-0.14784572,-0.11645119,0.28927907,-0.068683974,-0.21599604,0.0045231706,-0.10216475,0.025794433,0.17345999,-0.22431485,0.19029912,0.060739145,0.1008974,0.22086932,-0.12810166,-0.063920334,0.118882366,0.22441968,0.24541727,0.22236677,-0.071830675,0.30732578,-0.07231968,-0.24496226,-0.19219641,-0.071282454,0.055787634,-0.21055518,-0.33086452,0.13503098,-0.123168856,0.20842874,-0.12935719,0.14268923,0.23458669,0.12607373,-0.028779132,-0.0030349032,-0.3802211,0.004041585,0.07412967,0.23612553,-0.14979936,-0.20761009,0.29665726,-0.12057148,-0.01522874,0.06524921,0.2480667,-0.14673215,0.0931448,0.22199605,0.010233132,0.1593994,0.10324863,-0.025050519,-0.028253809,-0.29294452,0.047384758,0.11956826,-0.110755034,-0.20725918,0.25636515,-0.026063243,-0.28220588,-0.18990569,-0.0933326,0.0047829794,0.009410994,-0.22487879,-0.089315236,-0.06867262,-0.023651304,-0.0013415511,0.19631383,-0.25590616,-0.02875632,0.15335853,0.22747242,-0.089944,-0.082893685,0.021885645,0.24511862,-0.13972357,0.2193338,-0.3300969,0.011615491,0.10406112,-0.12678462,0.114860915,0.20637925,-0.04181999,0.19063254,-0.0021019424,0.2960247,0.2415469,-0.2814502,0.021820104,0.009505258,-0.0066996044,0.15300658,0.08230169,0.19972382,-0.2230129,0.090506546,-0.0030277586,0.23384684,0.27591634,0.019599805,0.2798053,0.011933823,-0.14614627,0.24016087,-0.20044063,-0.03198659,0.22979876,-0.22575074,0.090607524,-0.16667508,0.1168969,0.3795932,0.12306913,0.16560356,0.16711666,-0.13947648,0.13162464,0.12203982,-0.1828487,-0.095363975,0.17652518,-0.09514264,0.09815636,-0.16574067,0.32092178,-0.11114337,-0.09963651,-0.21138947,-0.16213422,-0.29881948,-0.031799298,-0.04237385,0.16236597,-0.36682728,-0.23733467,-0.1228703,-0.1884955,-0.008524954,0.15296708,-0.13196208,0.018872358,-0.28774196,0.029961627,0.083560936,-0.024763891,0.044927303,0.04122916,0.18136132,-0.13551787,-0.22950016,-0.15385307,0.012479544,0.10684865,0.16896306,-0.027470699,-0.08022022,0.18550625,0.052879095,-0.12694159,0.17007637,0.109829165,-0.07817661,0.20834686,-0.00096781045,-0.12723053,-0.06328595,0.13190512,0.19434413,0.053579826,-0.15504855,-0.10982304,-0.09654182,0.18129605,-0.02175263,-0.24670751,0.22293952,0.12408031,0.26484764,-0.31607896,0.094184645,-0.23985776,0.21344094,0.19392857,0.23121126,-0.02661736,0.06309113,-0.15114202,0.09817348,-0.18232346,-0.098166406,-0.11345039,0.12206378,-0.035043694,-0.07894864,0.29592076,0.036442056,-0.10733187,-0.21449767,0.17513244,0.2094185,0.09788421,-0.041392777,-0.13891509,0.05946943,0.35599804,0.024697388,-0.120246604,0.06971916,-0.032533873,-0.10369904
General,0.0032451833,-0.0032601277,-0.0021664966,0.00092792866,0.0021439958,-0.0017891225,0.0009174975,0.003040437,-0.0022718073,-0.002033304,-0.001663214,-0.0012254707,0.0006165719,0.0032275442,0.0021459253,0.00013236403,0.00082358957,0.002813497,0.0030429931,0.001876251,0.0019820877,-0.0025402287,-0.0012758906,-0.0018934441,0.0020605915,-0.00075214985,-0.0029264784,0.0025397083,0.0027998944,-0.001106745,0.0030388865,-0.0002461199,-0.0012088398,-0.00012823025,6.4808926e-05,-0.0011682988,0.0009377472,0.0019099017,0.0022896698,-0.0029678221,-0.0007309095,-0.0018272658,0.0025070333,0.0021672344,-0.001453574,0.000775611,-0.0019845536,7.883191e-05,0.0031539197,-0.00086994725,-0.0017292392,-0.0024657364,-0.0009706473,-0.0002881046,0.0011759539,0.0032472964,-0.0011297583,0.0006339228,0.003227003,0.00051052886,0.00032883207,0.003267457,0.0030984867,0.0025693555,-0.0020568422,0.003327995,0.0019496623,0.003024222,-0.00066506624,0.0011166453,0.0022778523,-0.001297919,0.0022142834,0.00085428753,0.0031045766,-0.0010119347,-0.0010364564,0.0020717967,-0.0030260817,-0.0024179972,-0.0021666754,-0.0002496914,-0.0007876738,0.0022718399,0.003078864,-0.00030325295,0.00047094145,0.0006734522,-0.00067326624,-0.0026781138,0.00248035,-0.0014326338,0.0015255061,0.0030299013,0.0010144075,0.0010462634,0.0013539429,-0.00090040563,0.0012749231,0.00011254112,0.0018755706,0.001832457,0.0006097066,0.001916469,-0.0029893592,0.0021864525,0.0030753308,-0.0014023825,0.0005358501,-0.0017446271,0.0003527395,0.00092338957,0.0027202456,0.0001813376,0.00085235276,0.00043257832,0.002800841,-0.0019025676,-0.0020872767,-0.0012091728,-0.0007668499,0.0016803542,-0.0027067857,-0.0009445119,-0.0027324755,0.0017165701,-0.00085602124,-0.0030223692,0.001357243,0.0030057745,-0.0010125533,-0.0019461799,0.0010066294,-0.00014528274,-0.0033264789,0.0028059015,-0.002446296,-0.001643469,-0.00088569365,-0.0018174382,0.00057217,0.0032376046,0.0015240908,0.002696201,-0.00015681943,0.00021497448,-0.0008894507,-0.0029265205,0.0011437678,0.00069779117,-0.003140618,-0.0016561457,-0.0032446997,-0.0019065972,0.0013548473,0.0028809535,0.00137055,0.0007961547,0.002714926,-0.00037306984,-0.00046590448,-0.0029156078,-4.1930674e-05,-0.0008558575,0.0001286924,0.002426554,-0.0023471534,-0.0013154916,-0.002221535,-0.0011813716,-0.0011052771,0.00071237364,0.0011093895,-0.0016523957,-0.0015154302,0.00037956476,0.0018178276,0.0017912165,-0.0009895122,-0.0014221752,-0.0018722157,-0.00018166105,0.00064879097,0.0005084487,0.0024508433,-0.00091112417,-2.1974643e-05,-0.0018425445,-0.0003900218,-0.0025706545,-0.00031977653,0.00043655833,-0.0028649147,0.0029161945,-0.0030692888,-0.0032082256,-0.002837208,0.0024377562,0.0018218561,0.0030831539,0.0008567258,0.00028217633,-0.00084648014,0.0031192228,0.0009191696,0.0013652162,-0.00039431173,0.00030150136,0.0022081025,-0.00024216692,0.001113836,-0.00022400697,0.0017494658,0.0012133113,0.0008608433,-0.0017699644,-0.0015693669,0.0014360074,-0.001969057,-6.0068767e-05,-0.0002111721,0.0011644145,-0.0028140887,0.002939078,-0.00048291485,-0.0017769758,0.0013514896,-0.00064516347,-0.0025884942,-0.0014989328,-0.00012924234,-0.0029821575,0.0001901877,0.0008139312,-0.001075091,0.00085680006,0.0008269326,0.0033294053,0.00047683518,0.00067351264,0.00092652044,-0.00069262384,-0.0028995387,0.0026743913,-0.00065823237,-0.0032307713,-0.0021840015,-0.001315287,0.0013181157,0.001679527,0.0020286704,-0.0022567534,0.00022961259,-0.0009250939,-0.0017363989,0.0023270908,0.0013173223,-0.0010355023,-0.002758969,-0.0017135954,-0.00021651149,0.0026039216,0.0020147285,-0.0028172187,-0.0031878452,0.0023779452,-0.0007758554,-0.0012307696,0.0019166108,-0.0019481019,0.001697985,-8.08084e-05,-0.002291721,-0.00011054595,0.0021196639,0.0030979796,0.0007403044,0.0016833643,-0.0016581746,-0.00026585063,-0.0017725452,0.00039632083,-0.000597738,-0.0012108783,-0.0023381265,0.0032181437,0.0009919425,-0.00076040823,-0.0013946967,0.0025712624,-0.0021606183,0.0010405143,0.00026245238,0.0027742935,0.0022787256,-0.000969549,0.0008450333,-0.00055535755,-0.003151554,-0.00087115366
Plataforma,-0.01640058,-0.06164767,0.034321897,0.056372568,-0.025239637,0.0063991407,-0.060369153,0.06495132,-0.0037007437,0.027290544,-0.04020461,-0.09425195,-0.06740778,0.06677379,-0.11679013,-0.04348223,0.006316645,0.017621418,0.10765327,-0.06513755,-0.030010862,0.044754785,-0.037951518,0.002435496,0.04585424,0.031387977,-0.12246995,0.11666565,-0.012997323,-0.016584748,-0.007085141,0.01776022,0.061597932,0.08708705,-0.12343194,-0.006544075,-0.04417974,-0.07926771,-0.035696793,0.005992663,0.06643238,0.016061721,-0.0517154,-0.00485625,-0.056026153,0.023018872,-0.046294704,-0.083861604,-0.036970846,0.012420184,0.01664619,-0.044285707,0.020009726,0.08452935,-0.016946867,-0.0843377,-0.015531487,-0.07130701,0.060249165,0.03000954,-0.06751355,-0.027441518,0.052602828,0.006377745,-0.028896173,-0.014249636,0.017885594,-0.021552479,-0.04866663,0.023800561,-0.00566476,0.103716426,0.01872423,-0.112000585,0.07184958,-0.012054117,0.060287345,-0.06218697,-0.0019238065,0.0074457354,-0.058859967,-0.037161432,-0.040512078,0.108809635,-0.07424401,-0.018480064,-0.0095263235,-0.091703415,0.014050132,0.101467624,-0.022727631,0.043996744,0.012963389,-0.049464036,-0.0027008867,0.0134224715,0.03213909,0.1242232,0.09948799,0.13818876,0.023720037,-0.02423162,0.068713404,-0.007190739,-0.053114787,-0.06981325,-0.06002321,0.0011356767,-0.051486164,-0.100602835,-0.00096826215,-0.058836997,-0.0050452026,-0.013256886,0.056148436,0.1298787,0.012273024,-0.0075134323,-0.0085097635,-0.12455426,0.070683636,0.08771086,0.07025493,0.012432442,0.0039456734,0.14631635,-0.03816876,-0.078351125,0.023648394,0.064456664,-0.013758106,0.026248481,0.07969165,-0.03490117,0.05425848,0.04019491,-0.014204808,0.005902733,-0.10487677,-0.030527035,0.015355985,-0.056677528,-0.03947187,0.07438153,0.0049620806,-0.062084567,-0.0996161,-0.04152084,0.054002687,0.021226468,-0.07229338,-0.058346134,-0.061739635,0.035605434,0.0053567262,0.09728092,-0.0364578,-0.038544178,-0.0018628106,0.09592982,0.004170191,0.04656564,0.026380498,0.11592037,0.012811548,0.06003155,-0.111208625,0.04653987,0.082612544,-0.022647344,0.06153651,0.05615951,-0.028828004,0.02876512,0.022767538,0.050209977,0.08685091,-0.0857072,0.042631865,-0.011093408,0.015379291,-0.019977788,0.0079285735,0.027128797,-0.047228094,0.060328484,-0.011611482,0.05117425,0.06386082,-0.03525751,0.12245147,0.06537198,-0.014823244,0.0950948,-0.09390172,0.02331075,0.030853957,-0.089844495,-0.03707909,0.02320648,0.08424583,0.13949431,0.06265845,-0.021361373,0.112994246,-0.07375776,0.0698936,0.045619562,0.012484802,-0.07318999,0.06702004,-0.08922457,0.045100827,-0.057834897,0.097828366,-0.0037555825,0.043597583,-0.055217624,0.03139935,-0.10688878,0.08717574,0.0062910975,-0.013380415,-0.13797721,-0.078409776,0.008881312,-0.055866357,-0.029713681,0.072848916,-0.07443218,-0.04815984,-0.03318059,-0.024966588,-0.016041422,-0.0024901389,-0.024858769,0.004624995,0.09156201,-0.02385129,-0.018081816,0.023578279,-0.014728217,0.10910634,0.06663403,0.02356208,-0.008800308,-0.010269392,-0.02393722,-0.019831251,0.063080974,0.06327206,0.07191512,0.08928025,-0.06863367,0.028229782,-0.047275495,0.07320969,0.10443066,0.041775193,0.024960894,-0.10724361,-0.06725618,-0.006069981,0.064988844,-0.0053881225,0.06809747,0.014463282,0.039930925,0.0036550008,-0.0012495733,-0.07333694,-0.033726137,0.05927715,0.06633835,0.030924508,-0.012628835,0.06422712,0.03824703,-0.0017351748,0.017231002,-0.09961502,0.07996486,0.023033906,-0.039467636,0.120478034,0.06932963,0.06381071,-0.0293921,0.057159886,0.01718343,0.06511727,-0.008796182,0.03896982,0.029123254,0.087269075,0.0152469305,-0.022962073,0.06523384,-0.027283117,0.012388574
Retos,-0.19198418,0.09380152,0.15353535,0.043251257,-0.08910271,-0.15834151,0.0764065,0.29342058,0.037374116,-0.13473472,0.10418182,-0.08254568,-0.11803708,0.021805469,-0.054779403,-0.12641674,0.06354967,0.039920975,-0.15007086,-0.044289265,0.025485571,0.0998643,0.10577526,0.17020734,-0.092139296,0.004759308,0.0023291127,0.21880835,-0.08806949,-0.05818277,-0.17355722,-0.077106364,0.07039202,-0.030690609,-0.041796595,0.044201087,0.2507197,-0.25243565,-0.111304365,0.145903,-0.059312716,0.13699386,-0.10016541,-0.038473886,0.061910696,-0.024273198,-0.010087118,0.0043948134,0.03168599,0.054646667,-0.028333198,0.018396733,-0.044522114,-0.083409086,0.06897632,0.004067271,0.14145146,0.060418915,0.18872972,0.21988654,-0.046193693,-0.01125985,0.041688308,-0.119186476,0.05960528,-0.08100122,0.011028323,0.19146895,-0.095523246,0.013588464,0.10915974,0.06350938,0.059970137,-0.085437536,0.0706923,0.054362606,0.06706749,-0.009658164,-0.15491934,-0.14483327,-0.17016137,0.1602139,0.087175034,0.23176192,-0.15078016,0.05050058,0.15241276,-0.06725243,-0.004293235,0.07415951,-0.06063324,-0.026010824,0.04925762,-0.14134257,0.22492921,0.08240572,0.08166977,-0.07359772,0.10861614,0.082766026,-0.23489048,0.08912421,-0.056670822,-0.009671041,0.14963184,-0.03198889,-0.08174128,0.11612952,-0.07978698,0.024881663,-0.16086847,-0.03509556,-0.29879415,0.13373303,-0.038513552,0.16079572,0.058132846,0.20406173,-0.008980786,-0.17151482,0.124990895,-0.098968536,0.24423921,0.045360103,0.12165768,0.15762202,-0.09134804,-0.03571362,-0.12635715,0.13174972,0.2988751,-0.032980733,0.056632236,-0.26885217,0.2087197,-0.01282935,0.04017012,0.16211496,0.08859696,0.0020383345,0.06619577,-0.24992785,-0.20261195,0.15758647,0.03144771,-0.028139444,0.037397496,-0.075308524,0.15371886,-0.056327328,0.10581326,-0.12071975,0.019699076,0.0403725,-0.009466894,0.03137378,0.005404789,-0.1085083,-0.12148318,0.071404055,0.026930522,0.056040395,0.031123534,0.03782454,0.0814648,0.07826302,0.2578225,0.070218444,0.11153487,0.1935568,-0.0944265,-0.045466855,-0.055448577,0.12770453,0.11169337,-0.02886387,-0.10590443,0.09063162,0.2294933,-0.18846849,-0.14212476,-0.120955564,0.091893174,-0.11510753,-0.102624394,-0.07401076,0.10283921,-0.07478768,-0.14494619,-0.18288858,0.13435735,0.021199066,0.2065508,-0.13197011,-0.089708395,-0.054493986,0.105282195,0.017202267,-0.23843691,0.2102743,-0.022826243,0.15619114,-0.1039547,-0.21992958,0.124268025,0.019042293,0.12059444,0.13120182,-0.14246975,-0.07738439,-0.09117399,-0.14192922,0.050604418,-0.17665784,0.025800273,-0.18728974,0.108717,0.021720564,-0.0362443,-0.18644765,-0.053962067,-0.088245265,0.002980506,-0.08404916,-0.08163865,-0.12364909,0.123376615,-0.080188766,-0.011123921,0.12889563,0.03730326,-0.1500082,-0.18728597,-0.1801068,-0.1173497,0.09571727,0.027292814,0.19190829,0.10653977,-0.0034200351,0.17251594,-0.14863156,-0.0011287667,0.13480608,0.08902946,0.040929988,-0.035453103,-0.022235565,-0.01048577,0.01700086,0.12845303,-0.0046618422,0.08617931,-0.09011399,-0.18264371,-0.09437158,0.18065768,-0.10095182,-0.19959284,-0.08405388,0.065576464,-0.1491565,0.14918117,-0.022544967,0.019955993,0.19555214,0.1186142,0.07675073,-0.11084659,-0.11002236,0.06979733,-0.00485922,0.20230049,0.13106069,-0.010167565,0.16275242,0.1791119,0.1603074,0.043720372,0.14601259,0.010602979,-0.063836575,-0.0025752122,-0.16707256,0.0910057,-0.1314516,0.0040629054,0.103117205,0.1417758,-0.026266297,0.1893672,0.19116063,0.10735047,-0.07601834,0.2283496,0.07869412,0.041411173,-0.045012005,0.11850552,-0.12541969
Tutoria,-0.15352507,0.096520975,0.07754955,0.06280808,-0.09525767,-0.19385897,0.14512384,0.25545412,0.0036343858,-0.19337538,0.20216115,0.022521308,-0.044145435,0.004095683,0.018349024,-0.03106747,0.14190657,-0.028733743,-0.2308465,-0.07087803,0.080131836,0.0604137,0.16470894,0.155911,-0.05391064,-0.040707428,0.06488134,0.13055012,-0.0865552,-0.070688985,-0.07450488,-0.027254568,0.05183421,-0.08391979,0.015081244,0.0630736,0.26800242,-0.18397842,-0.07582839,0.094001606,-0.09879482,0.14459397,-0.031651814,-0.11140553,0.11173175,-0.0072412086,-0.021334454,0.11069676,0.0693964,0.10523869,-0.029353831,0.09822996,-0.14320387,-0.106925525,0.08165076,-0.028915701,0.11378443,0.066758305,0.088749886,0.1353756,-0.0028578243,0.064027786,0.060098514,-0.12329779,0.026206788,-0.05243262,-0.048769094,0.13001746,-0.07700242,-0.05560953,0.14324372,0.043728266,-0.010112557,-0.02410834,0.033924967,-0.02942134,0.053453587,0.0654026,-0.10910286,-0.10875799,-0.05506888,0.14418638,0.10799108,0.17707732,-0.07732419,0.0018096077,0.16908664,0.012956063,-0.029215526,0.0097721955,-0.08177796,-0.027380299,0.057139054,-0.03009385,0.29079932,0.02164905,-0.011496319,-0.1964972,0.03734257,-0.0077072293,-0.18602435,0.10463423,-0.027721062,-0.00012422069,0.13451476,-0.021216426,-0.018040396,0.12937528,-0.083217494,0.022718702,-0.10395295,-0.014520289,-0.19625792,0.10810686,-0.040768083,0.07280838,0.09285081,0.20156078,-0.0006509056,-0.11420487,0.027190436,-0.18064709,0.21175645,-0.04090386,0.057963636,0.061171554,-0.09560285,0.080713734,-0.11757838,0.13137032,0.2509058,-0.034748018,0.011188112,-0.2060524,0.17600143,-0.018145548,0.06449594,0.13876833,0.13470006,0.0865785,0.10049175,-0.20071013,-0.2164533,0.118546605,-0.00015237319,-0.02451776,0.11437381,-0.04601918,0.06810329,-0.07701321,0.1397473,-0.08345154,0.065388545,-0.0048288214,-0.017177789,-0.0071193622,-0.0121643385,-0.042837724,-0.05589721,0.03185837,-0.035914313,-0.031055491,-0.0069980463,-0.040307432,0.028715447,0.076578096,0.28237528,-0.010353096,0.03690865,0.17423882,-0.14240228,-0.06974991,-0.016737256,0.14585006,0.06180917,-0.00047898464,-0.15390114,0.097003266,0.16637,-0.14973883,-0.1734964,-0.017659431,0.12004751,-0.08780869,-0.09814023,-0.112240285,0.11493791,-0.07104299,-0.10518773,-0.12009395,0.054706573,-0.06626241,0.14913912,-0.17804642,-0.027831797,-0.09420603,0.14163426,0.052736934,-0.15467292,0.12149423,-0.092964195,0.08353285,-0.14218514,-0.12008625,0.030218199,0.083779015,0.04450795,0.10173557,-0.21485125,0.008042331,-0.121505745,-0.04920408,0.03614165,-0.13146102,0.02077634,-0.19854724,0.02939288,0.035334427,-0.13691029,-0.1362083,-0.17571218,-0.10357323,0.07048408,-0.043952152,-0.03901671,-0.16061565,0.13675866,-0.019723518,-0.061222177,0.17377706,0.120452404,-0.20104842,-0.14463618,-0.12089309,-0.13209891,0.11527072,0.0407614,0.121664494,0.075176716,-0.045574915,0.06742342,-0.09564779,-0.102704525,0.093670875,0.049793787,0.027026173,0.04206231,0.021851555,-0.034388192,-0.012334413,0.07217808,-0.1258844,0.014851452,-0.0051962337,-0.26651564,-0.05105051,0.10974408,-0.16087995,-0.2221728,-0.16882206,0.16414222,-0.08666725,0.21876746,-0.09684188,-0.07359407,0.18250868,0.14484929,0.10429518,-0.21746396,-0.041883104,0.08223538,0.11998312,0.16930664,0.100863054,-0.06159001,0.1886647,0.055607017,0.13065445,-0.029279197,0.07629341,0.09871154,-0.14274246,-0.06043765,-0.1184601,0.022004236,-0.20647778,-0.13107266,0.051937386,0.114764445,0.026442138,0.107110985,0.17168888,0.016742822,-0.099814266,0.2155702,0.07208054,0.051040534,-0.09280767,0.14691977,-0.16237037
Videos,-0.15289979,0.019991573,0.21177429,0.02403036,-0.06721445,-0.037127454,-0.06392934,0.23635045,0.05499951,0.016895033,-0.09021489,-0.22177668,-0.19406258,0.06914815,-0.1825404,-0.2155815,-0.074988365,0.12931089,0.055919427,-0.026341224,-0.06521849,0.12769927,-0.037320983,0.106964774,-0.07015523,0.06974859,-0.12954983,0.2757684,-0.06359904,-0.02119117,-0.24188764,-0.1013058,0.10415156,0.06982598,-0.14091685,-0.025215564,0.098057635,-0.26077005,-0.105385765,0.1321366,0.019432595,0.071377315,-0.17955086,0.07307856,-0.06347127,-0.041579913,-0.010547395,-0.15342326,-0.03845228,-0.019715445,-0.01966976,-0.1045253,0.119409084,0.020504573,0.033864174,0.015653372,0.11435005,-0.012996818,0.24580483,0.26276407,-0.108088866,-0.12206679,-0.0032396794,-0.062507935,0.060949586,-0.07550339,0.09802967,0.17936943,-0.09693026,0.12634052,0.014898051,0.10912354,0.13531782,-0.18815266,0.11720759,0.1457266,0.09076746,-0.13441071,-0.145437,-0.13664861,-0.26495266,0.09661489,0.0115001155,0.24131946,-0.21156904,0.095679455,0.058794975,-0.18531281,0.030829445,0.1791845,0.006115569,-0.004474486,0.027663046,-0.24285907,0.03219639,0.13710003,0.16493194,0.164735,0.18850397,0.2234418,-0.19377387,0.031069355,-0.03909239,-0.007604907,0.09172641,-0.06968104,-0.15206932,0.049043663,-0.053725854,-0.029612219,-0.16397496,-0.07782292,-0.30337396,0.110473946,0.012813823,0.2626139,0.0025130834,0.11964589,-0.028664684,-0.2022291,0.22528377,0.08846361,0.19601905,0.12594894,0.17225744,0.26583663,-0.07015408,-0.20117496,-0.06354045,0.10077903,0.23069632,-0.013031015,0.11057734,-0.24228278,0.17035349,0.0242477,-0.0023366385,0.12737447,-0.03073727,-0.11116879,0.0022591865,-0.22233154,-0.10108941,0.14604531,0.046744183,-0.022856079,-0.10837458,-0.09530744,0.21210262,0.010339667,0.00080692593,-0.15127707,-0.0869487,0.10634666,0.0076832785,0.118530065,0.040889464,-0.14229819,-0.15833798,0.13849083,0.084471025,0.17534259,0.070014894,0.15644161,0.13594458,0.070027,0.07960425,0.14141472,0.19877368,0.12362775,0.027842885,0.0013557038,-0.08469741,0.05471931,0.13133733,-0.05384169,0.018724468,0.007701094,0.22219412,-0.14977208,-0.033530235,-0.1977893,0.022865418,-0.097679466,-0.064725086,0.038785543,0.032699864,-0.04266167,-0.09951409,-0.19748047,0.21491174,0.15402558,0.18254995,0.010702149,-0.166837,0.037620403,0.016877221,-0.07170078,-0.27134275,0.25247812,0.11732751,0.22377446,0.005971544,-0.25708985,0.2491487,-0.08713234,0.17867924,0.12432759,0.024917671,-0.16460833,0.01017813,-0.23177932,0.07819868,-0.16297086,0.05918008,-0.08021883,0.20127502,-0.006698106,0.122907825,-0.2064853,0.16953002,-0.027785044,-0.10631925,-0.16336288,-0.111580655,-0.012346673,0.04064795,-0.11496391,0.07651967,-0.013927554,-0.10558501,-0.02033704,-0.17393447,-0.18037574,-0.059031505,-0.000108075285,-0.0052387607,0.22771916,0.08721253,0.06007818,0.232407,-0.14449647,0.17946236,0.15695255,0.11682936,0.048251446,-0.12784272,-0.09331475,0.018361619,0.068595365,0.16493124,0.19238485,0.1524072,-0.20487635,0.018534709,-0.13343579,0.2061695,0.0629904,-0.06644726,0.080158554,-0.13648097,-0.19234364,-0.014942767,0.12406861,0.12377417,0.15546316,0.04283567,0.014019198,0.087799415,-0.13207738,0.0011348014,-0.1864213,0.166966,0.12281143,0.07103033,0.044493765,0.3151375,0.13993485,0.11859542,0.17799479,-0.15270938,0.091813095,0.067656346,-0.1574691,0.17990369,0.052154485,0.20343052,0.104576536,0.13810293,-0.0857219,0.22126977,0.12271192,0.21515334,-0.0046936674,0.16133246,0.05561796,0.017490264,0.07399201,0.02481142,-0.008156866
